#ifndef FC_WEIGHT_H
#define FC_WEIGHT_H

#include "../parameters.h"

// FC weights - 10 classes x 64 channels = 640

const input_t fc_weight[640] = {
    0.16364766657352448, -0.03226357325911522, 0.02527122013270855, 0.0035548906307667494, -0.06941590458154678, -0.22085556387901306, -0.04979022964835167, 0.04204101487994194, -0.029602382332086563, 0.04213620722293854, 0.05702407285571098, 0.06315338611602783, -0.09204602986574173, 0.10850194841623306, 0.008985516615211964, -0.1148514598608017, 0.14196370542049408, -0.1573917120695114, 0.15519164502620697, 0.042909443378448486, 0.04878302663564682, -0.09619452804327011, -0.17346492409706116, -0.040423233062028885, 0.021166622638702393, 0.13130134344100952, -0.06788291782140732, 0.06631415337324142, -0.11424039304256439, -0.12923288345336914, 0.05086222290992737, -0.2534867227077484, 0.09318306297063828, -0.11459828168153763, 0.20976987481117249, 0.08678759634494781, -0.004637553822249174, -0.010827445425093174, -0.08114107698202133, 0.013703083619475365, -0.023840507492423058, 0.08318076282739639, 0.03475835919380188, 0.02272995561361313, 0.11570484191179276, -0.012735247611999512, 0.03760358318686485, 0.040005624294281006, -0.05761389061808586, 0.001368525787256658, 0.1285545974969864, -0.07889386266469955, -0.08748696744441986, 0.08251093327999115, -0.10637986660003662, 0.04633314162492752, -0.16144829988479614, 0.057207923382520676, -0.06496243923902512, -0.13169653713703156, 0.05287191644310951, 0.08687099814414978, 0.04216442629694939, 0.0638454407453537, -0.06070415675640106, 0.02331618219614029, 0.16339807212352753, -0.025870434939861298, 0.05999637767672539, 0.03576738387346268, -0.023372765630483627, -0.0802488625049591, -0.05202769860625267, -0.18082767724990845, 0.1350841373205185, 0.05291593447327614, -0.04741987958550453, -0.02902461402118206, -0.0061087291687726974, 0.09858749061822891, 0.09631900489330292, -0.042220402508974075, 0.1755376011133194, -0.07476458698511124, 0.13934551179409027, 0.00201031262986362, -0.04051634669303894, -0.17915919423103333, -0.0430009700357914, 0.04501451551914215, -0.09546864032745361, 0.05672168359160423, 0.04987332597374916, -0.019342564046382904, -0.234754741191864, -0.05388829484581947, 0.0253443606197834, -0.04242707043886185, -0.00826640147715807, -0.15201780200004578, -0.04718875139951706, -0.08011554181575775, 0.030353322625160217, -0.030867639929056168, 0.03383803367614746, 0.17178674042224884, 0.21451343595981598, -0.026143906638026237, -0.003759603016078472, -0.005564900115132332, 0.053769901394844055, 0.06300175935029984, 0.02229224517941475, -0.02549482136964798, 0.04567693918943405, 0.03564196452498436, 0.06771797686815262, -0.08826913684606552, 0.14604918658733368, 0.06294069439172745, 0.0009648559498600662, 0.05358139052987099, -0.032090749591588974, 0.11906851828098297, 0.10736846923828125, 0.03335648030042648, -0.04081764444708824, 0.012270227074623108, -0.062495436519384384, -0.21632598340511322, 0.008951176889240742, -0.0256474781781435, -0.06126333773136139, -0.08714062720537186, 0.020583270117640495, -0.048085056245326996, -0.040219198912382126, -0.021819600835442543, 0.08646629005670547, -0.14038220047950745, 0.004263783805072308, -0.09489093720912933, -0.007183604873716831, -0.186975359916687, 0.04263998568058014, -0.13946764171123505, 0.1998375952243805, 0.014999676495790482, -0.11314317584037781, -0.10338683426380157, 0.14014504849910736, 0.07991243898868561, -0.02310352399945259, -0.04662594944238663, 0.009921101853251457, 0.05085935443639755, 0.03769734129309654, 0.12122371792793274, 0.06764869391918182, 0.14452828466892242, 0.15923959016799927, 0.039701152592897415, -0.13696667551994324, 0.06950611621141434, 0.12898916006088257, 0.03616677597165108, -0.024994317442178726, -0.11574071645736694, -0.21807198226451874, 0.06279058754444122, 0.029747433960437775, -0.09767355769872665, -0.20789417624473572, -0.10223174095153809, 0.2003837376832962, -0.028319858014583588, 0.08030179888010025, -0.04186222702264786, 0.06965281814336777, -0.15513229370117188, 0.19519132375717163, -0.16904066503047943, 0.005345300305634737, 0.046315997838974, 0.08545370399951935, -0.0518791489303112, -0.04257189482450485, 0.10828793048858643, -0.09841402620077133, 0.05601845681667328, -0.015915220603346825, 0.08979523181915283, -0.08544973284006119, 0.07180364429950714, -0.003531879745423794, -0.18151482939720154, 0.11321824043989182, 0.05651475116610527, 0.03757767751812935, -0.026298493146896362, -0.13085944950580597, 0.03555598109960556, 0.09194056689739227, -0.05224129557609558, 0.04071948677301407, 0.04721954092383385, 0.1422087550163269, -0.02967492863535881, -0.007909382693469524, 0.03905821219086647, -0.0002910700277425349, 0.09248320758342743, -0.013971714302897453, 0.12534750998020172, -0.002709894673898816, 0.042355749756097794, -0.00797458365559578, 0.08571206778287888, -0.027935782447457314, -0.15543727576732635, -0.08245238661766052, -0.09744124859571457, -0.05036989226937294, 0.0670199990272522, 0.010389917530119419, -0.17514880001544952, 0.034332212060689926, -0.024539336562156677, -0.09767674654722214, -0.1369924247264862, 0.06204313412308693, -0.21960566937923431, 0.042493101209402084, -0.20410102605819702, -0.15200529992580414, 0.16137316823005676, 0.03452382981777191, 0.027022315189242363, 0.1293133646249771, -0.03151006996631622, 0.07916166633367538, 0.1758602261543274, 0.15754443407058716, 0.12766392529010773, -0.002368711167946458, -0.0008269695099443197, 0.03179795667529106, -0.2544378936290741, 0.22628571093082428, 0.038035113364458084, -0.22353878617286682, -0.10032206773757935, -0.13892090320587158, 0.21736007928848267, 0.028310194611549377, 0.07216029614210129, -0.011082161217927933, 0.18718743324279785, 0.06963300704956055, -0.04080730304121971, 0.01673511415719986, 0.03211832791566849, -0.08923081308603287, -0.11840446293354034, 0.028087446466088295, 0.09813060611486435, -0.02360534854233265, 0.0892590880393982, -0.08457086235284805, 0.030514225363731384, -0.0938074141740799, -0.10269130021333694, 0.10010270774364471, -0.04883118346333504, 0.1825665682554245, 0.068072609603405, -0.09480956941843033, 0.09258366376161575, 0.06369888037443161, 0.017921485006809235, -0.11585360020399094, -0.09863708913326263, -0.110649973154068, 0.024923693388700485, -0.10601262748241425, 0.05313923954963684, 0.10071701556444168, 0.05313168466091156, 0.13480506837368011, -0.08591587096452713, -0.1050957515835762, -0.10462118685245514, -0.09476985037326813, 0.03578278049826622, -0.15502069890499115, 0.17104583978652954, -0.04153590276837349, -0.013987417332828045, 0.06416142731904984, -0.15651600062847137, 0.1459982842206955, -0.018637143075466156, -0.10803765803575516, 0.03642748296260834, 0.012336448766291142, 0.05829475447535515, -0.015501714311540127, -0.0696834847331047, 0.08485707640647888, -0.13918828964233398, -0.019604695960879326, -0.18813657760620117, -0.022109318524599075, 0.1823473572731018, -0.065414197742939, -0.013630595989525318, 0.20134516060352325, -0.02310064248740673, -0.07452121376991272, 0.16196703910827637, -0.08796782791614532, 0.004083746112883091, -0.023745840415358543, 0.21475906670093536, -0.14576801657676697, 0.11972949653863907, 0.1217292919754982, -0.07658752053976059, 0.0642978698015213, 0.18167820572853088, 0.027067160233855247, -0.11156847327947617, 0.2647293508052826, -0.1639833152294159, 0.04699045419692993, 0.12902545928955078, 0.10194209218025208, 0.0596308596432209, 0.048344507813453674, 0.09053849428892136, -0.13369035720825195, -0.017336590215563774, 0.023879727348685265, -0.039009276777505875, 0.07536818087100983, 0.030128730461001396, -0.10980981588363647, -0.01617516577243805, -0.06526639312505722, -0.05198988318443298, -0.02321166917681694, -0.08629869669675827, -0.11076071113348007, 0.20211881399154663, -0.139515683054924, 0.06984873116016388, 0.0897069200873375, -0.168328195810318, 0.134162038564682, -0.11670541018247604, -0.038500189781188965, 0.03708909824490547, 0.16059577465057373, 0.10116050392389297, 0.09148511290550232, 0.04549417644739151, 0.010919470340013504, 0.11360872536897659, -0.07553403824567795, -0.04839715361595154, -0.14637508988380432, 0.009744007140398026, -0.03818280249834061, 0.03306267783045769, 0.09837616980075836, -0.13247103989124298, -0.009356205351650715, 0.03264620155096054, 0.063619464635849, -0.2116944044828415, 0.07216088473796844, -0.0814836397767067, -0.007973198778927326, 0.30450913310050964, -0.043995656073093414, -0.15111897885799408, 0.05880150571465492, 0.12094805389642715, 0.04588688910007477, -0.07847066968679428, -0.03545394167304039, 0.032084230333566666, -0.19175466895103455, -0.07609057426452637, 0.19896045327186584, -0.010721487924456596, -0.12007202208042145, -0.08451541513204575, -0.1032758355140686, 0.0024043461307883263, 0.12855567038059235, 0.1452140510082245, 0.04240391030907631, 0.23321568965911865, -0.12393280118703842, 0.06697837263345718, -0.07232899963855743, -0.11410648375749588, 0.02392977476119995, -0.13422615826129913, 0.12027207016944885, -0.11437243223190308, 0.06887147575616837, 0.14506900310516357, 0.033202655613422394, -0.0886828750371933, -0.07592617720365524, -0.05682600662112236, 0.04815936088562012, 0.023409003391861916, 0.06788106262683868, -0.07022537291049957, -0.06028762087225914, 0.10887710750102997, 0.010395952500402927, 0.11824840307235718, -0.04929696395993233, 0.021527456119656563, 0.04585866630077362, 0.2137020081281662, -0.008524468168616295, -0.013571885414421558, 0.06404107809066772, -0.05430928245186806, 0.1559458076953888, -0.05364979803562164, 0.00020268221851438284, -0.08276066929101944, -0.04245426133275032, -0.05248517543077469, 0.0030380801763385534, -0.061621952801942825, -0.09154710173606873, -0.09306828677654266, 0.07072063535451889, -0.047913722693920135, -0.020771127194166183, 0.015324055217206478, 0.026920927688479424, -0.0008260344038717449, -0.0015500509180128574, -0.010114770382642746, -0.047591812908649445, -0.10284005850553513, -0.16405089199543, 0.30197110772132874, 0.022876432165503502, -0.005916332360357046, 0.0346749983727932, 0.18810847401618958, 0.027065593749284744, 0.06215590238571167, 0.21204355359077454, -0.10172705352306366, 0.23728258907794952, -0.0473417267203331, 0.14166133105754852, -0.020949652418494225, -0.07901283353567123, -0.016620703041553497, 0.04314394295215607, 0.09413302689790726, -0.09697961062192917, -0.11577547341585159, 0.07512786239385605, 0.08962082862854004, 0.07432544231414795, -0.012860994786024094, -0.1431892067193985, -0.01092254463583231, -0.1279260367155075, -0.07152418792247772, -0.045928627252578735, 0.1126440092921257, 0.012096919119358063, -0.09522707015275955, -0.06705227494239807, 0.06720302253961563, -0.08079499751329422, -0.018842894583940506, 0.01839369907975197, -0.15190231800079346, -0.026323508471250534, 0.17275461554527283, -0.04895204305648804, 0.04582321643829346, -0.13680166006088257, -0.014314711093902588, 0.058495618402957916, 0.027387211099267006, 0.06589314341545105, 0.006435736082494259, 0.14035677909851074, -0.095724917948246, -0.01711508445441723, -0.05881393700838089, 0.009385863319039345, 0.07243339717388153, 0.012026939541101456, -0.057578194886446, -0.11463572084903717, -0.01600976474583149, 0.17973868548870087, 0.012050000950694084, -0.0293030496686697, 0.1447397619485855, 0.10107586532831192, -0.09234655648469925, 0.0006027412600815296, 0.07150556147098541, 0.01221089530736208, -0.09272103011608124, 0.00536241102963686, -0.026522893458604813, -0.11148975044488907, -0.04315951466560364, 0.018543019890785217, -0.05118304491043091, 0.22126689553260803, -0.0325850211083889, -0.06535463780164719, 0.19726209342479706, 0.16082866489887238, 0.11141953617334366, -0.010567584075033665, 0.028083160519599915, 0.0626453161239624, -0.07102728635072708, -0.09538910537958145, 0.008204248733818531, -0.08055905997753143, 0.04156283289194107, -0.1545334905385971, 0.006026750430464745, -0.06046268343925476, 0.013614220544695854, -0.050753429532051086, -0.04249335825443268, -0.12478083372116089, 0.08097691088914871, 0.0021417485550045967, -0.11712437123060226, -0.09829547256231308, 0.03864885866641998, 0.08552048355340958, -0.04082128033041954, -0.09718799591064453, 0.03860997408628464, -0.0020923526026308537, 0.13316628336906433, -0.012936919927597046, -0.02402477152645588, 0.07538291811943054, -0.07100111246109009, 0.15543846786022186, 0.014600892551243305, -0.023063231259584427, 0.022834207862615585, -0.06741368025541306, 0.11724742501974106, -0.057748403400182724, -0.026551861315965652, -0.005531254690140486, -0.025277435779571533, 0.18684297800064087, 0.12229075282812119, 0.05921023339033127, -7.713179002166726e-06, 0.2979612648487091, 0.10800883173942566, -0.09393665939569473, -0.005176522769033909, 0.10660960525274277, 0.0043473313562572, 0.0685996487736702, 0.10163117945194244, 0.07575472444295883, 0.01904953271150589, 0.08572838455438614, 0.0996357798576355, 0.02622571960091591, -0.07391642779111862, 0.006231706589460373, -0.06763073801994324, 0.006277909968048334, 0.06514302641153336, 0.10803699493408203, 0.13028520345687866, 0.09674593061208725, -0.16537317633628845, -0.11392822861671448, 0.02114018425345421, 0.024048656225204468, 0.020080870017409325, -0.019871406257152557, 0.050824880599975586, -0.1454252004623413, -0.032999634742736816, 0.02411745674908161, 0.03880855068564415, 0.11168261617422104, 0.07786401361227036, -0.1314871460199356, -0.014323214069008827, -0.018489735201001167, 0.03878054395318031, -0.040431778877973557, -0.06727137416601181, 0.13101671636104584, -0.06322525441646576, 0.0015575772849842906, 0.08124592900276184, -0.04651776701211929, 0.14019259810447693, -0.0696539655327797, 0.09280996769666672, -0.12425576895475388, -0.0666075274348259, 0.06534377485513687, -0.1052904725074768, -0.047478727996349335, 0.09173620492219925, 0.05010536313056946, -0.017853211611509323, -0.1541551798582077, 0.11710857599973679, -0.04805006831884384, -0.07524567097425461, -0.09565246105194092, 0.11438747495412827
};

#endif // FC_WEIGHT_H
